digraph Tree {
node [shape=box, style="filled", color="black"] ;
0 [label="mylife <= 0.5\ngini = 0.129\nsamples = 5399\nvalue = [5024, 375]\nclass = 0", fillcolor="#e78a48"] ;
1 [label="tokyo <= 0.5\ngini = 0.128\nsamples = 5395\nvalue = [5023, 372]\nclass = 0", fillcolor="#e78a48"] ;
0 -> 1 [labeldistance=2.5, labelangle=45, headlabel="True"] ;
2 [label="79 <= 0.5\ngini = 0.127\nsamples = 5388\nvalue = [5020, 368]\nclass = 0", fillcolor="#e78a48"] ;
1 -> 2 ;
3 [label="essex <= 0.5\ngini = 0.127\nsamples = 5386\nvalue = [5020, 366]\nclass = 0", fillcolor="#e78a47"] ;
2 -> 3 ;
4 [label="gini = 0.126\nsamples = 5384\nvalue = [5020, 364]\nclass = 0", fillcolor="#e78a47"] ;
3 -> 4 ;
5 [label="gini = 0.0\nsamples = 2\nvalue = [0, 2]\nclass = 1", fillcolor="#399de5"] ;
3 -> 5 ;
6 [label="gini = 0.0\nsamples = 2\nvalue = [0, 2]\nclass = 1", fillcolor="#399de5"] ;
2 -> 6 ;
7 [label="wiwt <= 0.5\ngini = 0.49\nsamples = 7\nvalue = [3, 4]\nclass = 1", fillcolor="#cee6f8"] ;
1 -> 7 ;
8 [label="2020 <= 0.5\ngini = 0.32\nsamples = 5\nvalue = [1, 4]\nclass = 1", fillcolor="#6ab6ec"] ;
7 -> 8 ;
9 [label="gini = 0.0\nsamples = 4\nvalue = [0, 4]\nclass = 1", fillcolor="#399de5"] ;
8 -> 9 ;
10 [label="gini = 0.0\nsamples = 1\nvalue = [1, 0]\nclass = 0", fillcolor="#e58139"] ;
8 -> 10 ;
11 [label="gini = 0.0\nsamples = 2\nvalue = [2, 0]\nclass = 0", fillcolor="#e58139"] ;
7 -> 11 ;
12 [label="âƒã <= 1.0\ngini = 0.375\nsamples = 4\nvalue = [1, 3]\nclass = 1", fillcolor="#7bbeee"] ;
0 -> 12 [labeldistance=2.5, labelangle=-45, headlabel="False"] ;
13 [label="gini = 0.0\nsamples = 3\nvalue = [0, 3]\nclass = 1", fillcolor="#399de5"] ;
12 -> 13 ;
14 [label="gini = 0.0\nsamples = 1\nvalue = [1, 0]\nclass = 0", fillcolor="#e58139"] ;
12 -> 14 ;
}